<?xml version="1.0"?>
<opencv_storage>
<cascade>
  <stageType>BOOST</stageType>
  <featureType>HAAR</featureType>
  <height>50</height>
  <width>50</width>
  <stageParams>
    <boostType>GAB</boostType>
    <minHitRate>9.9500000476837158e-01</minHitRate>
    <maxFalseAlarm>5.0000000000000000e-01</maxFalseAlarm>
    <weightTrimRate>9.4999999999999996e-01</weightTrimRate>
    <maxDepth>1</maxDepth>
    <maxWeakCount>100</maxWeakCount></stageParams>
  <featureParams>
    <maxCatCount>0</maxCatCount>
    <featSize>1</featSize>
    <mode>BASIC</mode></featureParams>
  <stageNum>8</stageNum>
  <stages>
    <!-- stage 0 -->
    <_>
      <maxWeakCount>3</maxWeakCount>
      <stageThreshold>-9.3764978647232056e-01</stageThreshold>
      <weakClassifiers>
        <_>
          <internalNodes>
            0 -1 12 -3.4383296966552734e-02</internalNodes>
          <leafValues>
            9.1022729873657227e-01 -9.5476192235946655e-01</leafValues></_>
        <_>
          <internalNodes>
            0 -1 19 1.7425544559955597e-02</internalNodes>
          <leafValues>
            -8.1878048181533813e-01 8.0030000209808350e-01</leafValues></_>
        <_>
          <internalNodes>
            0 -1 9 5.7152926921844482e-02</internalNodes>
          <leafValues>
            -7.3982512950897217e-01 8.3589261770248413e-01</leafValues></_></weakClassifiers></_>
    <!-- stage 1 -->
    <_>
      <maxWeakCount>3</maxWeakCount>
      <stageThreshold>-9.3340981006622314e-01</stageThreshold>
      <weakClassifiers>
        <_>
          <internalNodes>
            0 -1 14 -6.3106030225753784e-02</internalNodes>
          <leafValues>
            8.0362039804458618e-01 -8.5585588216781616e-01</leafValues></_>
        <_>
          <internalNodes>
            0 -1 7 1.0666762292385101e-01</internalNodes>
          <leafValues>
            -6.4671576023101807e-01 8.4533804655075073e-01</leafValues></_>
        <_>
          <internalNodes>
            0 -1 23 -4.7357167932204902e-04</internalNodes>
          <leafValues>
            5.6916177272796631e-01 -9.9523329734802246e-01</leafValues></_></weakClassifiers></_>
    <!-- stage 2 -->
    <_>
      <maxWeakCount>2</maxWeakCount>
      <stageThreshold>-3.1713351607322693e-02</stageThreshold>
      <weakClassifiers>
        <_>
          <internalNodes>
            0 -1 2 1.4937108755111694e-01</internalNodes>
          <leafValues>
            -6.3969796895980835e-01 8.3263599872589111e-01</leafValues></_>
        <_>
          <internalNodes>
            0 -1 16 -1.2912807054817677e-02</internalNodes>
          <leafValues>
            6.6836607456207275e-01 -8.6434936523437500e-01</leafValues></_></weakClassifiers></_>
    <!-- stage 3 -->
    <_>
      <maxWeakCount>4</maxWeakCount>
      <stageThreshold>-5.1857835054397583e-01</stageThreshold>
      <weakClassifiers>
        <_>
          <internalNodes>
            0 -1 13 -5.0418086349964142e-02</internalNodes>
          <leafValues>
            7.1221530437469482e-01 -8.6227542161941528e-01</leafValues></_>
        <_>
          <internalNodes>
            0 -1 10 3.0442140996456146e-02</internalNodes>
          <leafValues>
            -6.0740077495574951e-01 7.3261141777038574e-01</leafValues></_>
        <_>
          <internalNodes>
            0 -1 20 -3.3879992552101612e-03</internalNodes>
          <leafValues>
            4.4500866532325745e-01 -8.6819475889205933e-01</leafValues></_>
        <_>
          <internalNodes>
            0 -1 1 9.1613568365573883e-03</internalNodes>
          <leafValues>
            -6.5417540073394775e-01 5.0608921051025391e-01</leafValues></_></weakClassifiers></_>
    <!-- stage 4 -->
    <_>
      <maxWeakCount>3</maxWeakCount>
      <stageThreshold>-8.7730115652084351e-01</stageThreshold>
      <weakClassifiers>
        <_>
          <internalNodes>
            0 -1 17 -9.6068866550922394e-03</internalNodes>
          <leafValues>
            6.5683382749557495e-01 -9.4699645042419434e-01</leafValues></_>
        <_>
          <internalNodes>
            0 -1 11 2.3162662982940674e-02</internalNodes>
          <leafValues>
            -6.1792790889739990e-01 7.8353589773178101e-01</leafValues></_>
        <_>
          <internalNodes>
            0 -1 3 2.7606110961642116e-05</internalNodes>
          <leafValues>
            5.0355136394500732e-01 -9.1620707511901855e-01</leafValues></_></weakClassifiers></_>
    <!-- stage 5 -->
    <_>
      <maxWeakCount>3</maxWeakCount>
      <stageThreshold>-7.8742283582687378e-01</stageThreshold>
      <weakClassifiers>
        <_>
          <internalNodes>
            0 -1 18 -7.8235182445496321e-04</internalNodes>
          <leafValues>
            6.4769381284713745e-01 -9.2526692152023315e-01</leafValues></_>
        <_>
          <internalNodes>
            0 -1 15 1.3129645027220249e-02</internalNodes>
          <leafValues>
            -7.5259381532669067e-01 5.7079589366912842e-01</leafValues></_>
        <_>
          <internalNodes>
            0 -1 8 -7.3428818723186851e-04</internalNodes>
          <leafValues>
            5.3637027740478516e-01 -6.8252289295196533e-01</leafValues></_></weakClassifiers></_>
    <!-- stage 6 -->
    <_>
      <maxWeakCount>4</maxWeakCount>
      <stageThreshold>-4.2418020963668823e-01</stageThreshold>
      <weakClassifiers>
        <_>
          <internalNodes>
            0 -1 22 -5.4680946050211787e-05</internalNodes>
          <leafValues>
            6.2278980016708374e-01 -8.2978725433349609e-01</leafValues></_>
        <_>
          <internalNodes>
            0 -1 0 1.5344480052590370e-02</internalNodes>
          <leafValues>
            -5.3219419717788696e-01 7.0455014705657959e-01</leafValues></_>
        <_>
          <internalNodes>
            0 -1 24 2.5177367206197232e-05</internalNodes>
          <leafValues>
            -8.0701029300689697e-01 4.7370454668998718e-01</leafValues></_>
        <_>
          <internalNodes>
            0 -1 6 -1.3388064689934254e-02</internalNodes>
          <leafValues>
            4.6409669518470764e-01 -7.9164671897888184e-01</leafValues></_></weakClassifiers></_>
    <!-- stage 7 -->
    <_>
      <maxWeakCount>3</maxWeakCount>
      <stageThreshold>5.2303303033113480e-02</stageThreshold>
      <weakClassifiers>
        <_>
          <internalNodes>
            0 -1 21 -7.1666983421891928e-04</internalNodes>
          <leafValues>
            6.2822383642196655e-01 -9.0091741085052490e-01</leafValues></_>
        <_>
          <internalNodes>
            0 -1 4 1.7346662282943726e-01</internalNodes>
          <leafValues>
            -6.5579771995544434e-01 6.0254555940628052e-01</leafValues></_>
        <_>
          <internalNodes>
            0 -1 5 4.1177552193403244e-03</internalNodes>
          <leafValues>
            3.5067516565322876e-01 -9.8007392883300781e-01</leafValues></_></weakClassifiers></_></stages>
  <features>
    <_>
      <rects>
        <_>
          0 9 8 27 -1.</_>
        <_>
          4 9 4 27 2.</_></rects>
      <tilted>0</tilted></_>
    <_>
      <rects>
        <_>
          0 13 27 5 -1.</_>
        <_>
          9 13 9 5 3.</_></rects>
      <tilted>0</tilted></_>
    <_>
      <rects>
        <_>
          8 0 33 27 -1.</_>
        <_>
          8 9 33 9 3.</_></rects>
      <tilted>0</tilted></_>
    <_>
      <rects>
        <_>
          8 17 8 5 -1.</_>
        <_>
          12 17 4 5 2.</_></rects>
      <tilted>0</tilted></_>
    <_>
      <rects>
        <_>
          10 0 31 27 -1.</_>
        <_>
          10 9 31 9 3.</_></rects>
      <tilted>0</tilted></_>
    <_>
      <rects>
        <_>
          10 15 33 5 -1.</_>
        <_>
          21 15 11 5 3.</_></rects>
      <tilted>0</tilted></_>
    <_>
      <rects>
        <_>
          12 35 26 10 -1.</_>
        <_>
          12 40 26 5 2.</_></rects>
      <tilted>0</tilted></_>
    <_>
      <rects>
        <_>
          13 0 22 24 -1.</_>
        <_>
          13 8 22 8 3.</_></rects>
      <tilted>0</tilted></_>
    <_>
      <rects>
        <_>
          13 37 4 6 -1.</_>
        <_>
          13 40 4 3 2.</_></rects>
      <tilted>0</tilted></_>
    <_>
      <rects>
        <_>
          15 0 19 21 -1.</_>
        <_>
          15 7 19 7 3.</_></rects>
      <tilted>0</tilted></_>
    <_>
      <rects>
        <_>
          16 0 21 10 -1.</_>
        <_>
          16 5 21 5 2.</_></rects>
      <tilted>0</tilted></_>
    <_>
      <rects>
        <_>
          19 1 11 15 -1.</_>
        <_>
          19 6 11 5 3.</_></rects>
      <tilted>0</tilted></_>
    <_>
      <rects>
        <_>
          19 11 12 16 -1.</_>
        <_>
          19 19 12 8 2.</_></rects>
      <tilted>0</tilted></_>
    <_>
      <rects>
        <_>
          20 8 12 20 -1.</_>
        <_>
          20 18 12 10 2.</_></rects>
      <tilted>0</tilted></_>
    <_>
      <rects>
        <_>
          20 11 13 27 -1.</_>
        <_>
          20 20 13 9 3.</_></rects>
      <tilted>0</tilted></_>
    <_>
      <rects>
        <_>
          20 25 12 10 -1.</_>
        <_>
          20 30 12 5 2.</_></rects>
      <tilted>0</tilted></_>
    <_>
      <rects>
        <_>
          21 30 9 16 -1.</_>
        <_>
          21 38 9 8 2.</_></rects>
      <tilted>0</tilted></_>
    <_>
      <rects>
        <_>
          22 14 6 12 -1.</_>
        <_>
          22 20 6 6 2.</_></rects>
      <tilted>0</tilted></_>
    <_>
      <rects>
        <_>
          24 10 2 8 -1.</_>
        <_>
          24 14 2 4 2.</_></rects>
      <tilted>0</tilted></_>
    <_>
      <rects>
        <_>
          24 20 5 27 -1.</_>
        <_>
          24 29 5 9 3.</_></rects>
      <tilted>0</tilted></_>
    <_>
      <rects>
        <_>
          25 30 2 16 -1.</_>
        <_>
          25 38 2 8 2.</_></rects>
      <tilted>0</tilted></_>
    <_>
      <rects>
        <_>
          26 20 1 12 -1.</_>
        <_>
          26 24 1 4 3.</_></rects>
      <tilted>0</tilted></_>
    <_>
      <rects>
        <_>
          27 10 1 4 -1.</_>
        <_>
          27 12 1 2 2.</_></rects>
      <tilted>0</tilted></_>
    <_>
      <rects>
        <_>
          27 11 2 6 -1.</_>
        <_>
          27 14 2 3 2.</_></rects>
      <tilted>0</tilted></_>
    <_>
      <rects>
        <_>
          33 16 8 1 -1.</_>
        <_>
          37 16 4 1 2.</_></rects>
      <tilted>0</tilted></_></features></cascade>
</opencv_storage>
