<?xml version="1.0"?>
<opencv_storage>
<cascade>
  <stageType>BOOST</stageType>
  <featureType>HAAR</featureType>
  <height>40</height>
  <width>40</width>
  <stageParams>
    <boostType>GAB</boostType>
    <minHitRate>9.9500000476837158e-01</minHitRate>
    <maxFalseAlarm>5.0000000000000000e-01</maxFalseAlarm>
    <weightTrimRate>9.4999999999999996e-01</weightTrimRate>
    <maxDepth>1</maxDepth>
    <maxWeakCount>100</maxWeakCount></stageParams>
  <featureParams>
    <maxCatCount>0</maxCatCount>
    <featSize>1</featSize>
    <mode>BASIC</mode></featureParams>
  <stageNum>7</stageNum>
  <stages>
    <!-- stage 0 -->
    <_>
      <maxWeakCount>3</maxWeakCount>
      <stageThreshold>-8.9791834354400635e-01</stageThreshold>
      <weakClassifiers>
        <_>
          <internalNodes>
            0 -1 13 -4.4311087578535080e-02</internalNodes>
          <leafValues>
            9.0929704904556274e-01 -9.6172249317169189e-01</leafValues></_>
        <_>
          <internalNodes>
            0 -1 16 4.0672719478607178e-02</internalNodes>
          <leafValues>
            -7.7989530563354492e-01 8.4395158290863037e-01</leafValues></_>
        <_>
          <internalNodes>
            0 -1 10 6.2222778797149658e-02</internalNodes>
          <leafValues>
            -6.7639893293380737e-01 8.4369939565658569e-01</leafValues></_></weakClassifiers></_>
    <!-- stage 1 -->
    <_>
      <maxWeakCount>4</maxWeakCount>
      <stageThreshold>-3.6553323268890381e-01</stageThreshold>
      <weakClassifiers>
        <_>
          <internalNodes>
            0 -1 8 1.2627190351486206e-01</internalNodes>
          <leafValues>
            -7.1145373582839966e-01 8.5460990667343140e-01</leafValues></_>
        <_>
          <internalNodes>
            0 -1 15 -6.6925466060638428e-02</internalNodes>
          <leafValues>
            7.2979664802551270e-01 -7.6716494560241699e-01</leafValues></_>
        <_>
          <internalNodes>
            0 -1 20 -8.9561128988862038e-03</internalNodes>
          <leafValues>
            6.0851073265075684e-01 -7.9375880956649780e-01</leafValues></_>
        <_>
          <internalNodes>
            0 -1 24 -2.2771976364310831e-04</internalNodes>
          <leafValues>
            5.0457471609115601e-01 -9.5531439781188965e-01</leafValues></_></weakClassifiers></_>
    <!-- stage 2 -->
    <_>
      <maxWeakCount>2</maxWeakCount>
      <stageThreshold>-2.1496494114398956e-01</stageThreshold>
      <weakClassifiers>
        <_>
          <internalNodes>
            0 -1 23 -2.6629897765815258e-03</internalNodes>
          <leafValues>
            6.6238892078399658e-01 -9.4425088167190552e-01</leafValues></_>
        <_>
          <internalNodes>
            0 -1 7 3.6471664905548096e-02</internalNodes>
          <leafValues>
            -6.4386987686157227e-01 7.2928595542907715e-01</leafValues></_></weakClassifiers></_>
    <!-- stage 3 -->
    <_>
      <maxWeakCount>4</maxWeakCount>
      <stageThreshold>-4.8608300089836121e-01</stageThreshold>
      <weakClassifiers>
        <_>
          <internalNodes>
            0 -1 12 -1.7009858042001724e-02</internalNodes>
          <leafValues>
            6.7628866434097290e-01 -7.7575755119323730e-01</leafValues></_>
        <_>
          <internalNodes>
            0 -1 5 1.8224006891250610e-01</internalNodes>
          <leafValues>
            -6.1117351055145264e-01 6.6429561376571655e-01</leafValues></_>
        <_>
          <internalNodes>
            0 -1 21 -1.0080072097480297e-03</internalNodes>
          <leafValues>
            5.0793284177780151e-01 -8.8832557201385498e-01</leafValues></_>
        <_>
          <internalNodes>
            0 -1 18 -3.4106839448213577e-03</internalNodes>
          <leafValues>
            3.9291527867317200e-01 -9.2630016803741455e-01</leafValues></_></weakClassifiers></_>
    <!-- stage 4 -->
    <_>
      <maxWeakCount>4</maxWeakCount>
      <stageThreshold>-4.2732059955596924e-01</stageThreshold>
      <weakClassifiers>
        <_>
          <internalNodes>
            0 -1 11 -8.0446548759937286e-02</internalNodes>
          <leafValues>
            6.8946015834808350e-01 -8.2595419883728027e-01</leafValues></_>
        <_>
          <internalNodes>
            0 -1 2 1.2900633737444878e-02</internalNodes>
          <leafValues>
            -4.8103696107864380e-01 7.5218719244003296e-01</leafValues></_>
        <_>
          <internalNodes>
            0 -1 14 -2.6376044843345881e-04</internalNodes>
          <leafValues>
            4.3635737895965576e-01 -9.3611907958984375e-01</leafValues></_>
        <_>
          <internalNodes>
            0 -1 22 -4.4805587094742805e-05</internalNodes>
          <leafValues>
            4.4331318140029907e-01 -8.7247943878173828e-01</leafValues></_></weakClassifiers></_>
    <!-- stage 5 -->
    <_>
      <maxWeakCount>5</maxWeakCount>
      <stageThreshold>-1.0885643959045410e+00</stageThreshold>
      <weakClassifiers>
        <_>
          <internalNodes>
            0 -1 9 2.1595114376395941e-03</internalNodes>
          <leafValues>
            6.1695903539657593e-01 -8.5036498308181763e-01</leafValues></_>
        <_>
          <internalNodes>
            0 -1 1 8.9241061359643936e-03</internalNodes>
          <leafValues>
            -5.7368886470794678e-01 6.5776753425598145e-01</leafValues></_>
        <_>
          <internalNodes>
            0 -1 3 6.6141728311777115e-03</internalNodes>
          <leafValues>
            -8.9457046985626221e-01 3.6326295137405396e-01</leafValues></_>
        <_>
          <internalNodes>
            0 -1 17 -5.9602521359920502e-03</internalNodes>
          <leafValues>
            3.4080734848976135e-01 -9.3496835231781006e-01</leafValues></_>
        <_>
          <internalNodes>
            0 -1 4 2.0376914739608765e-01</internalNodes>
          <leafValues>
            -5.7807147502899170e-01 5.6310552358627319e-01</leafValues></_></weakClassifiers></_>
    <!-- stage 6 -->
    <_>
      <maxWeakCount>4</maxWeakCount>
      <stageThreshold>-5.0119078159332275e-01</stageThreshold>
      <weakClassifiers>
        <_>
          <internalNodes>
            0 -1 6 2.3594687227159739e-03</internalNodes>
          <leafValues>
            -8.6614173650741577e-01 5.9273421764373779e-01</leafValues></_>
        <_>
          <internalNodes>
            0 -1 25 3.5926306736655533e-05</internalNodes>
          <leafValues>
            -8.2395702600479126e-01 4.1812887787818909e-01</leafValues></_>
        <_>
          <internalNodes>
            0 -1 19 7.5832856819033623e-03</internalNodes>
          <leafValues>
            -5.7888364791870117e-01 6.1672282218933105e-01</leafValues></_>
        <_>
          <internalNodes>
            0 -1 0 9.4346348196268082e-03</internalNodes>
          <leafValues>
            -6.4934486150741577e-01 5.2570575475692749e-01</leafValues></_></weakClassifiers></_></stages>
  <features>
    <_>
      <rects>
        <_>
          0 9 21 5 -1.</_>
        <_>
          7 9 7 5 3.</_></rects>
      <tilted>0</tilted></_>
    <_>
      <rects>
        <_>
          0 10 6 18 -1.</_>
        <_>
          3 10 3 18 2.</_></rects>
      <tilted>0</tilted></_>
    <_>
      <rects>
        <_>
          0 11 6 18 -1.</_>
        <_>
          3 11 3 18 2.</_></rects>
      <tilted>0</tilted></_>
    <_>
      <rects>
        <_>
          4 24 33 5 -1.</_>
        <_>
          15 24 11 5 3.</_></rects>
      <tilted>0</tilted></_>
    <_>
      <rects>
        <_>
          7 0 26 21 -1.</_>
        <_>
          7 7 26 7 3.</_></rects>
      <tilted>0</tilted></_>
    <_>
      <rects>
        <_>
          8 0 25 21 -1.</_>
        <_>
          8 7 25 7 3.</_></rects>
      <tilted>0</tilted></_>
    <_>
      <rects>
        <_>
          10 23 21 7 -1.</_>
        <_>
          17 23 7 7 3.</_></rects>
      <tilted>0</tilted></_>
    <_>
      <rects>
        <_>
          11 0 20 8 -1.</_>
        <_>
          11 4 20 4 2.</_></rects>
      <tilted>0</tilted></_>
    <_>
      <rects>
        <_>
          11 0 23 21 -1.</_>
        <_>
          11 7 23 7 3.</_></rects>
      <tilted>0</tilted></_>
    <_>
      <rects>
        <_>
          11 10 21 3 -1.</_>
        <_>
          18 10 7 3 3.</_></rects>
      <tilted>0</tilted></_>
    <_>
      <rects>
        <_>
          12 0 13 18 -1.</_>
        <_>
          12 6 13 6 3.</_></rects>
      <tilted>0</tilted></_>
    <_>
      <rects>
        <_>
          13 7 16 16 -1.</_>
        <_>
          13 15 16 8 2.</_></rects>
      <tilted>0</tilted></_>
    <_>
      <rects>
        <_>
          13 26 17 10 -1.</_>
        <_>
          13 31 17 5 2.</_></rects>
      <tilted>0</tilted></_>
    <_>
      <rects>
        <_>
          15 8 11 14 -1.</_>
        <_>
          15 15 11 7 2.</_></rects>
      <tilted>0</tilted></_>
    <_>
      <rects>
        <_>
          15 12 9 2 -1.</_>
        <_>
          15 13 9 1 2.</_></rects>
      <tilted>0</tilted></_>
    <_>
      <rects>
        <_>
          16 7 8 24 -1.</_>
        <_>
          16 15 8 8 3.</_></rects>
      <tilted>0</tilted></_>
    <_>
      <rects>
        <_>
          16 17 9 21 -1.</_>
        <_>
          16 24 9 7 3.</_></rects>
      <tilted>0</tilted></_>
    <_>
      <rects>
        <_>
          19 4 3 34 -1.</_>
        <_>
          19 21 3 17 2.</_></rects>
      <tilted>0</tilted></_>
    <_>
      <rects>
        <_>
          19 16 4 9 -1.</_>
        <_>
          19 19 4 3 3.</_></rects>
      <tilted>0</tilted></_>
    <_>
      <rects>
        <_>
          19 22 6 6 -1.</_>
        <_>
          19 25 6 3 2.</_></rects>
      <tilted>0</tilted></_>
    <_>
      <rects>
        <_>
          19 23 4 14 -1.</_>
        <_>
          19 30 4 7 2.</_></rects>
      <tilted>0</tilted></_>
    <_>
      <rects>
        <_>
          21 7 2 6 -1.</_>
        <_>
          21 10 2 3 2.</_></rects>
      <tilted>0</tilted></_>
    <_>
      <rects>
        <_>
          21 8 2 2 -1.</_>
        <_>
          21 9 2 1 2.</_></rects>
      <tilted>0</tilted></_>
    <_>
      <rects>
        <_>
          21 12 2 8 -1.</_>
        <_>
          21 16 2 4 2.</_></rects>
      <tilted>0</tilted></_>
    <_>
      <rects>
        <_>
          22 9 1 4 -1.</_>
        <_>
          22 11 1 2 2.</_></rects>
      <tilted>0</tilted></_>
    <_>
      <rects>
        <_>
          29 13 4 2 -1.</_>
        <_>
          31 13 2 2 2.</_></rects>
      <tilted>0</tilted></_></features></cascade>
</opencv_storage>
