<?xml version="1.0"?>
<opencv_storage>
<cascade>
  <stageType>BOOST</stageType>
  <featureType>HAAR</featureType>
  <height>60</height>
  <width>60</width>
  <stageParams>
    <boostType>GAB</boostType>
    <minHitRate>9.9500000476837158e-01</minHitRate>
    <maxFalseAlarm>5.0000000000000000e-01</maxFalseAlarm>
    <weightTrimRate>9.4999999999999996e-01</weightTrimRate>
    <maxDepth>1</maxDepth>
    <maxWeakCount>100</maxWeakCount></stageParams>
  <featureParams>
    <maxCatCount>0</maxCatCount>
    <featSize>1</featSize>
    <mode>BASIC</mode></featureParams>
  <stageNum>7</stageNum>
  <stages>
    <!-- stage 0 -->
    <_>
      <maxWeakCount>3</maxWeakCount>
      <stageThreshold>-1.0418908596038818e+00</stageThreshold>
      <weakClassifiers>
        <_>
          <internalNodes>
            0 -1 7 -4.5027304440736771e-02</internalNodes>
          <leafValues>
            9.1484463214874268e-01 -9.1647332906723022e-01</leafValues></_>
        <_>
          <internalNodes>
            0 -1 15 2.5770768523216248e-02</internalNodes>
          <leafValues>
            -7.9453158378601074e-01 8.6288112401962280e-01</leafValues></_>
        <_>
          <internalNodes>
            0 -1 16 -2.6321816258132458e-03</internalNodes>
          <leafValues>
            6.6911405324935913e-01 -9.8063534498214722e-01</leafValues></_></weakClassifiers></_>
    <!-- stage 1 -->
    <_>
      <maxWeakCount>4</maxWeakCount>
      <stageThreshold>-4.8188647627830505e-01</stageThreshold>
      <weakClassifiers>
        <_>
          <internalNodes>
            0 -1 4 7.2493925690650940e-02</internalNodes>
          <leafValues>
            -7.3154360055923462e-01 8.5228604078292847e-01</leafValues></_>
        <_>
          <internalNodes>
            0 -1 10 -5.7061173021793365e-02</internalNodes>
          <leafValues>
            6.7537575960159302e-01 -7.9846411943435669e-01</leafValues></_>
        <_>
          <internalNodes>
            0 -1 18 -4.6145147643983364e-03</internalNodes>
          <leafValues>
            5.9339940547943115e-01 -8.7724208831787109e-01</leafValues></_>
        <_>
          <internalNodes>
            0 -1 22 -1.6519436030648649e-05</internalNodes>
          <leafValues>
            4.5472183823585510e-01 -9.0576499700546265e-01</leafValues></_></weakClassifiers></_>
    <!-- stage 2 -->
    <_>
      <maxWeakCount>3</maxWeakCount>
      <stageThreshold>4.0756478905677795e-01</stageThreshold>
      <weakClassifiers>
        <_>
          <internalNodes>
            0 -1 1 1.4025631546974182e-01</internalNodes>
          <leafValues>
            -6.0970461368560791e-01 8.3414041996002197e-01</leafValues></_>
        <_>
          <internalNodes>
            0 -1 24 -7.1690781624056399e-05</internalNodes>
          <leafValues>
            5.8276039361953735e-01 -8.2851320505142212e-01</leafValues></_>
        <_>
          <internalNodes>
            0 -1 17 -6.1833421932533383e-04</internalNodes>
          <leafValues>
            4.3450903892517090e-01 -9.7181755304336548e-01</leafValues></_></weakClassifiers></_>
    <!-- stage 3 -->
    <_>
      <maxWeakCount>4</maxWeakCount>
      <stageThreshold>-3.7141683697700500e-01</stageThreshold>
      <weakClassifiers>
        <_>
          <internalNodes>
            0 -1 9 -1.6808286309242249e-02</internalNodes>
          <leafValues>
            7.2260457277297974e-01 -7.9465544223785400e-01</leafValues></_>
        <_>
          <internalNodes>
            0 -1 23 -1.7596012912690639e-03</internalNodes>
          <leafValues>
            5.6196784973144531e-01 -9.4774496555328369e-01</leafValues></_>
        <_>
          <internalNodes>
            0 -1 12 3.6438964307308197e-02</internalNodes>
          <leafValues>
            -6.7846238613128662e-01 7.5617140531539917e-01</leafValues></_>
        <_>
          <internalNodes>
            0 -1 3 -1.8194140866398811e-03</internalNodes>
          <leafValues>
            6.1481213569641113e-01 -6.4817661046981812e-01</leafValues></_></weakClassifiers></_>
    <!-- stage 4 -->
    <_>
      <maxWeakCount>4</maxWeakCount>
      <stageThreshold>-2.8248420357704163e-01</stageThreshold>
      <weakClassifiers>
        <_>
          <internalNodes>
            0 -1 11 -1.7870275303721428e-02</internalNodes>
          <leafValues>
            7.3808217048645020e-01 -7.0580643415451050e-01</leafValues></_>
        <_>
          <internalNodes>
            0 -1 19 -8.3692408225033432e-05</internalNodes>
          <leafValues>
            -8.9508557319641113e-01 5.1354819536209106e-01</leafValues></_>
        <_>
          <internalNodes>
            0 -1 13 7.1561676450073719e-03</internalNodes>
          <leafValues>
            -5.8790737390518188e-01 6.9676667451858521e-01</leafValues></_>
        <_>
          <internalNodes>
            0 -1 0 3.8094274350441992e-04</internalNodes>
          <leafValues>
            -7.8699260950088501e-01 5.8893001079559326e-01</leafValues></_></weakClassifiers></_>
    <!-- stage 5 -->
    <_>
      <maxWeakCount>4</maxWeakCount>
      <stageThreshold>-8.3783257007598877e-01</stageThreshold>
      <weakClassifiers>
        <_>
          <internalNodes>
            0 -1 6 6.2002154299989343e-04</internalNodes>
          <leafValues>
            6.8507158756256104e-01 -8.3850932121276855e-01</leafValues></_>
        <_>
          <internalNodes>
            0 -1 25 5.5948607041500509e-05</internalNodes>
          <leafValues>
            -7.7221995592117310e-01 6.1290341615676880e-01</leafValues></_>
        <_>
          <internalNodes>
            0 -1 20 -6.8518720581778325e-06</internalNodes>
          <leafValues>
            4.2961460351943970e-01 -9.6563822031021118e-01</leafValues></_>
        <_>
          <internalNodes>
            0 -1 14 -4.5862496335757896e-05</internalNodes>
          <leafValues>
            3.4328207373619080e-01 -9.9077695608139038e-01</leafValues></_></weakClassifiers></_>
    <!-- stage 6 -->
    <_>
      <maxWeakCount>4</maxWeakCount>
      <stageThreshold>-3.8170301914215088e-01</stageThreshold>
      <weakClassifiers>
        <_>
          <internalNodes>
            0 -1 8 -1.0779638250824064e-04</internalNodes>
          <leafValues>
            6.0208433866500854e-01 -9.6319019794464111e-01</leafValues></_>
        <_>
          <internalNodes>
            0 -1 2 -2.7176819741725922e-02</internalNodes>
          <leafValues>
            6.2382388114929199e-01 -6.3865685462951660e-01</leafValues></_>
        <_>
          <internalNodes>
            0 -1 21 -6.1513675609603524e-04</internalNodes>
          <leafValues>
            5.0028491020202637e-01 -8.7498366832733154e-01</leafValues></_>
        <_>
          <internalNodes>
            0 -1 5 2.5385307148098946e-02</internalNodes>
          <leafValues>
            -7.3262757062911987e-01 5.3295946121215820e-01</leafValues></_></weakClassifiers></_></stages>
  <features>
    <_>
      <rects>
        <_>
          1 20 27 1 -1.</_>
        <_>
          10 20 9 1 3.</_></rects>
      <tilted>0</tilted></_>
    <_>
      <rects>
        <_>
          12 0 36 33 -1.</_>
        <_>
          12 11 36 11 3.</_></rects>
      <tilted>0</tilted></_>
    <_>
      <rects>
        <_>
          13 41 33 14 -1.</_>
        <_>
          13 48 33 7 2.</_></rects>
      <tilted>0</tilted></_>
    <_>
      <rects>
        <_>
          15 44 6 8 -1.</_>
        <_>
          15 48 6 4 2.</_></rects>
      <tilted>0</tilted></_>
    <_>
      <rects>
        <_>
          17 0 28 27 -1.</_>
        <_>
          17 9 28 9 3.</_></rects>
      <tilted>0</tilted></_>
    <_>
      <rects>
        <_>
          18 0 27 12 -1.</_>
        <_>
          18 6 27 6 2.</_></rects>
      <tilted>0</tilted></_>
    <_>
      <rects>
        <_>
          18 16 30 1 -1.</_>
        <_>
          28 16 10 1 3.</_></rects>
      <tilted>0</tilted></_>
    <_>
      <rects>
        <_>
          21 13 18 20 -1.</_>
        <_>
          21 23 18 10 2.</_></rects>
      <tilted>0</tilted></_>
    <_>
      <rects>
        <_>
          23 17 1 8 -1.</_>
        <_>
          23 21 1 4 2.</_></rects>
      <tilted>0</tilted></_>
    <_>
      <rects>
        <_>
          24 37 15 18 -1.</_>
        <_>
          24 46 15 9 2.</_></rects>
      <tilted>0</tilted></_>
    <_>
      <rects>
        <_>
          25 13 13 33 -1.</_>
        <_>
          25 24 13 11 3.</_></rects>
      <tilted>0</tilted></_>
    <_>
      <rects>
        <_>
          25 22 13 18 -1.</_>
        <_>
          25 28 13 6 3.</_></rects>
      <tilted>0</tilted></_>
    <_>
      <rects>
        <_>
          26 0 11 24 -1.</_>
        <_>
          26 8 11 8 3.</_></rects>
      <tilted>0</tilted></_>
    <_>
      <rects>
        <_>
          27 3 8 12 -1.</_>
        <_>
          27 7 8 4 3.</_></rects>
      <tilted>0</tilted></_>
    <_>
      <rects>
        <_>
          27 16 12 2 -1.</_>
        <_>
          27 17 12 1 2.</_></rects>
      <tilted>0</tilted></_>
    <_>
      <rects>
        <_>
          28 24 9 33 -1.</_>
        <_>
          28 35 9 11 3.</_></rects>
      <tilted>0</tilted></_>
    <_>
      <rects>
        <_>
          29 11 1 22 -1.</_>
        <_>
          29 22 1 11 2.</_></rects>
      <tilted>0</tilted></_>
    <_>
      <rects>
        <_>
          29 16 4 6 -1.</_>
        <_>
          29 19 4 3 2.</_></rects>
      <tilted>0</tilted></_>
    <_>
      <rects>
        <_>
          29 35 4 20 -1.</_>
        <_>
          29 45 4 10 2.</_></rects>
      <tilted>0</tilted></_>
    <_>
      <rects>
        <_>
          30 18 1 6 -1.</_>
        <_>
          30 20 1 2 3.</_></rects>
      <tilted>0</tilted></_>
    <_>
      <rects>
        <_>
          30 23 1 2 -1.</_>
        <_>
          30 24 1 1 2.</_></rects>
      <tilted>0</tilted></_>
    <_>
      <rects>
        <_>
          30 26 2 12 -1.</_>
        <_>
          30 30 2 4 3.</_></rects>
      <tilted>0</tilted></_>
    <_>
      <rects>
        <_>
          31 15 2 2 -1.</_>
        <_>
          31 16 2 1 2.</_></rects>
      <tilted>0</tilted></_>
    <_>
      <rects>
        <_>
          31 19 3 10 -1.</_>
        <_>
          31 24 3 5 2.</_></rects>
      <tilted>0</tilted></_>
    <_>
      <rects>
        <_>
          32 12 2 4 -1.</_>
        <_>
          32 14 2 2 2.</_></rects>
      <tilted>0</tilted></_>
    <_>
      <rects>
        <_>
          41 19 8 2 -1.</_>
        <_>
          45 19 4 2 2.</_></rects>
      <tilted>0</tilted></_></features></cascade>
</opencv_storage>
